-1.2075
-1.2075
-1.2075
-1.2075
-1.2075
-1.2075
-1.2075
-1.2075
-1.2075
0.0094
0.0094
0.0094
0.0094
0.0094
0.0094
0.0094
0.0094
0.0094
1.5619
1.0507
0.87913
-1.0942
1.0786
-1.1265
0.78996
-0.94014
-1.2429
-1.6834
0.1017
1.6448
-0.48413
0.8367
0.48764
0.29985
-0.67446
0.44593
0.79796
0.3183
-0.90919
-0.93269
-1.0311
0.5559
0.015604
0.90656
0.2781
-0.35589
0.52131
-0.22376
-1.2951
1.4178
0.048034
0.38734
-0.45118
0.29645
0.78055
-0.9491
0.65348
-1.1453
0.291
0.59174
0.088786
-0.79447
-1.0436
-0.91555
1.2899
-2.0373
0.22076
-0.14292
1.2164
-1.0129
-0.6407
0.73654
0.21764
-1.342
-0.98266
1.0574
-0.23934
-0.1464
2.197
-0.22884
-0.40908
0.73915
-0.79008
-0.085324
-1.3214
-0.78321
-0.31483
0.30926
0.9431
-0.30144
-0.40998
-1.3805
-0.31953
0.5161
-0.25288
1.2033
-0.49026
1.2422
2.4612
-0.36137
0.050892
1.9269
-0.28849
-0.20613
0.32568
0.47802
1.7972
0.55705
0.78389
-0.49756
-1.2943
1.165
-0.84052
0.88256
1.5462
0.82329
-0.073987
-0.089709
-0.57601
0.86318
-1.5233
0.80067
2.0361
1.3283
-0.10749
-0.17179
-1.4017
0.5596
-0.53394
0.58793
-0.81885
-0.79919
-1.548
-0.54208
-0.18186
4.0486
1.1304
1.7409
-1.0261
0.5
0.5